{"graph_0": {"_type": "graph-file", "path": "media/graph/g.r.a.p.h._.0_summary_4878c0ed.graph.json", "sha256": "4878c0eddb60243ed2e82243ad5bf04ac185d3fc74b9ff03654b0086215f0144", "size": 730}, "epoch": 1000, "loss": 0.6805732250213623, "_step": 999, "_runtime": 23, "_timestamp": 1603472636, "gradients/l2.bias": {"_type": "histogram", "values": [0.0, 0.0, 0.0, 0.0, 0.0, 0.0, 0.0, 0.0, 0.0, 0.0, 0.0, 0.0, 0.0, 0.0, 0.0, 0.0, 0.0, 0.0, 0.0, 0.0, 0.0, 0.0, 0.0, 0.0, 0.0, 0.0, 0.0, 0.0, 0.0, 0.0, 0.0, 0.0, 1.0, 0.0, 0.0, 0.0, 0.0, 0.0, 0.0, 0.0, 0.0, 0.0, 0.0, 0.0, 0.0, 0.0, 0.0, 0.0, 0.0, 0.0, 0.0, 0.0, 0.0, 0.0, 0.0, 0.0, 0.0, 0.0, 0.0, 0.0, 0.0, 0.0, 0.0, 0.0], "bins": [-0.49367332458496094, -0.49367332458496094, -0.49367332458496094, -0.49367332458496094, -0.49367332458496094, -0.49367332458496094, -0.49367332458496094, -0.49367332458496094, -0.49367332458496094, -0.49367332458496094, -0.49367332458496094, -0.49367332458496094, -0.49367332458496094, -0.49367332458496094, -0.49367332458496094, -0.49367332458496094, -0.49367332458496094, -0.49367332458496094, -0.49367332458496094, -0.49367332458496094, -0.49367332458496094, -0.49367332458496094, -0.49367332458496094, -0.49367332458496094, -0.49367332458496094, -0.49367332458496094, -0.49367332458496094, -0.49367332458496094, -0.49367332458496094, -0.49367332458496094, -0.49367332458496094, -0.49367332458496094, -0.49367332458496094, -0.49367332458496094, -0.49367332458496094, -0.49367332458496094, -0.49367332458496094, -0.49367332458496094, -0.49367332458496094, -0.49367332458496094, -0.49367332458496094, -0.49367332458496094, -0.49367332458496094, -0.49367332458496094, -0.49367332458496094, -0.49367332458496094, -0.49367332458496094, -0.49367332458496094, -0.49367332458496094, -0.49367332458496094, -0.49367332458496094, -0.49367332458496094, -0.49367332458496094, -0.49367332458496094, -0.49367332458496094, -0.49367332458496094, -0.49367332458496094, -0.49367332458496094, -0.49367332458496094, -0.49367332458496094, -0.49367332458496094, -0.49367332458496094, -0.49367332458496094, -0.49367332458496094, -0.49367332458496094]}, "gradients/l2.weight": {"_type": "histogram", "values": [3.0, 0.0, 2.0, 0.0, 1.0, 0.0, 0.0, 0.0, 1.0, 1.0, 0.0, 1.0, 0.0, 1.0, 3.0, 0.0, 1.0, 0.0, 0.0, 0.0, 1.0, 0.0, 0.0, 1.0, 2.0, 1.0, 0.0, 1.0, 0.0, 1.0, 0.0, 1.0, 1.0, 1.0, 0.0, 0.0, 0.0, 0.0, 1.0, 0.0, 0.0, 0.0, 0.0, 1.0, 0.0, 1.0, 2.0, 1.0, 2.0, 0.0, 0.0, 0.0, 0.0, 0.0, 1.0, 0.0, 0.0, 1.0, 0.0, 0.0, 0.0, 1.0, 0.0, 65.0], "bins": [-0.19427573680877686, -0.19124017655849457, -0.18820461630821228, -0.18516905605793, -0.1821334958076477, -0.1790979504585266, -0.17606239020824432, -0.17302682995796204, -0.16999126970767975, -0.16695570945739746, -0.16392014920711517, -0.16088458895683289, -0.1578490436077118, -0.1548134833574295, -0.15177792310714722, -0.14874236285686493, -0.14570680260658264, -0.14267124235630035, -0.13963568210601807, -0.13660012185573578, -0.1335645616054535, -0.1305290162563324, -0.1274934560060501, -0.12445789575576782, -0.12142233550548553, -0.11838677525520325, -0.11535121500492096, -0.11231566220521927, -0.10928010195493698, -0.1062445417046547, -0.103208988904953, -0.10017342865467072, -0.09713786840438843, -0.09410230815410614, -0.09106674790382385, -0.08803119510412216, -0.08499563485383987, -0.08196007460355759, -0.0789245218038559, -0.07588896155357361, -0.07285340130329132, -0.06981784105300903, -0.06678228080272675, -0.06374672800302505, -0.06071116775274277, -0.05767560750246048, -0.05464005097746849, -0.0516044944524765, -0.048568934202194214, -0.045533373951911926, -0.04249781742691994, -0.03946226090192795, -0.03642670065164566, -0.03339114040136337, -0.030355583876371384, -0.027320025488734245, -0.024284467101097107, -0.02124890871345997, -0.01821335032582283, -0.015177791938185692, -0.012142233550548553, -0.009106675162911415, -0.006071116775274277, -0.0030355583876371384, 0.0]}, "gradients/l1.bias": {"_type": "histogram", "values": [3.0, 1.0, 1.0, 0.0, 1.0, 0.0, 0.0, 0.0, 1.0, 1.0, 0.0, 1.0, 1.0, 1.0, 2.0, 0.0, 1.0, 0.0, 0.0, 0.0, 1.0, 0.0, 0.0, 2.0, 1.0, 1.0, 0.0, 1.0, 0.0, 1.0, 0.0, 1.0, 1.0, 1.0, 0.0, 0.0, 0.0, 0.0, 1.0, 0.0, 0.0, 0.0, 0.0, 1.0, 0.0, 1.0, 2.0, 1.0, 2.0, 0.0, 0.0, 0.0, 0.0, 1.0, 0.0, 0.0, 0.0, 1.0, 0.0, 0.0, 0.0, 1.0, 0.0, 65.0], "bins": [-0.001239366945810616, -0.0012200018391013145, -0.001200636732392013, -0.0011812716256827116, -0.0011619065189734101, -0.0011425414122641087, -0.0011231763055548072, -0.0011038111988455057, -0.0010844460921362042, -0.0010650809854269028, -0.0010457158787176013, -0.0010263507720082998, -0.0010069856652989984, -0.0009876205585896969, -0.0009682554518803954, -0.0009488903451710939, -0.0009295252384617925, -0.000910160131752491, -0.0008907950250431895, -0.000871429918333888, -0.0008520648116245866, -0.0008326997049152851, -0.0008133345982059836, -0.0007939694914966822, -0.0007746043265797198, -0.0007552392198704183, -0.0007358741131611168, -0.0007165090064518154, -0.0006971438997425139, -0.0006777787930332124, -0.000658413686323911, -0.0006390485796146095, -0.000619683472905308, -0.0006003183661960065, -0.0005809532594867051, -0.0005615881527774036, -0.0005422230460681021, -0.0005228579393588006, -0.0005034928326494992, -0.0004841277259401977, -0.00046476261923089623, -0.00044539751252159476, -0.0004260324058122933, -0.0004066672991029918, -0.00038730219239369035, -0.0003679370856843889, -0.0003485719789750874, -0.00032920687226578593, -0.000309841736452654, -0.00029047662974335253, -0.00027111152303405106, -0.0002517464163247496, -0.00023238130961544812, -0.00021301620290614665, -0.00019365108164492995, -0.00017428597493562847, -0.000154920868226327, -0.00013555576151702553, -0.00011619065480772406, -9.682554082246497e-05, -7.74604341131635e-05, -5.809532740386203e-05, -3.8730213418602943e-05, -1.9365106709301472e-05, 0.0]}, "gradients/l1.weight": {"_type": "histogram", "values": [3.0, 1.0, 1.0, 0.0, 1.0, 0.0, 0.0, 0.0, 1.0, 1.0, 0.0, 1.0, 1.0, 1.0, 2.0, 0.0, 1.0, 0.0, 0.0, 0.0, 1.0, 0.0, 0.0, 2.0, 1.0, 1.0, 0.0, 1.0, 0.0, 1.0, 0.0, 1.0, 1.0, 1.0, 0.0, 0.0, 0.0, 0.0, 1.0, 0.0, 0.0, 0.0, 0.0, 1.0, 0.0, 1.0, 2.0, 1.0, 2.0, 0.0, 0.0, 0.0, 0.0, 1.0, 0.0, 0.0, 0.0, 1.0, 0.0, 0.0, 0.0, 1.0, 0.0, 65.0], "bins": [-0.12269733101129532, -0.12078018486499786, -0.11886303871870041, -0.11694589257240295, -0.1150287464261055, -0.11311160027980804, -0.11119445413351059, -0.10927730798721313, -0.10736016184091568, -0.10544301569461823, -0.10352586954832077, -0.10160872340202332, -0.09969157725572586, -0.0977744311094284, -0.09585728496313095, -0.0939401388168335, -0.09202300012111664, -0.09010585397481918, -0.08818870782852173, -0.08627156168222427, -0.08435441553592682, -0.08243726938962936, -0.08052012324333191, -0.07860297709703445, -0.076685830950737, -0.07476868480443954, -0.07285153865814209, -0.07093439251184464, -0.06901724636554718, -0.06710010021924973, -0.06518295407295227, -0.06326580792665482, -0.06134866550564766, -0.059431519359350204, -0.05751437321305275, -0.055597227066755295, -0.05368008092045784, -0.051762938499450684, -0.04984579235315323, -0.047928646206855774, -0.04601150006055832, -0.044094353914260864, -0.04217720776796341, -0.040260061621665955, -0.0383429154753685, -0.036425769329071045, -0.03450862318277359, -0.032591480761766434, -0.03067433275282383, -0.028757186606526375, -0.02684004046022892, -0.024922896176576614, -0.02300575003027916, -0.021088603883981705, -0.01917145773768425, -0.017254311591386795, -0.015337166376411915, -0.01342002023011446, -0.01150287501513958, -0.009585728868842125, -0.007668583188205957, -0.00575143750756979, -0.003834291361272335, -0.0019171461462974548, 0.0]}}