{"graph_0": {"_type": "graph-file", "path": "media/graph/g.r.a.p.h._.0_summary_0bca4b77.graph.json", "sha256": "0bca4b77146bae0445648b2f3618f527cb745e180943e138faab47a9ceb0d981", "size": 722}, "epoch": 1000, "loss": 0.6836692094802856, "_step": 999, "_runtime": 25, "_timestamp": 1603472897, "gradients/l2.bias": {"_type": "histogram", "values": [0.0, 0.0, 0.0, 0.0, 0.0, 0.0, 0.0, 0.0, 0.0, 0.0, 0.0, 0.0, 0.0, 0.0, 0.0, 0.0, 0.0, 0.0, 0.0, 0.0, 0.0, 0.0, 0.0, 0.0, 0.0, 0.0, 0.0, 0.0, 0.0, 0.0, 0.0, 0.0, 1.0, 0.0, 0.0, 0.0, 0.0, 0.0, 0.0, 0.0, 0.0, 0.0, 0.0, 0.0, 0.0, 0.0, 0.0, 0.0, 0.0, 0.0, 0.0, 0.0, 0.0, 0.0, 0.0, 0.0, 0.0, 0.0, 0.0, 0.0, 0.0, 0.0, 0.0, 0.0], "bins": [-0.4952384829521179, -0.4952384829521179, -0.4952384829521179, -0.4952384829521179, -0.4952384829521179, -0.4952384829521179, -0.4952384829521179, -0.4952384829521179, -0.4952384829521179, -0.4952384829521179, -0.4952384829521179, -0.4952384829521179, -0.4952384829521179, -0.4952384829521179, -0.4952384829521179, -0.4952384829521179, -0.4952384829521179, -0.4952384829521179, -0.4952384829521179, -0.4952384829521179, -0.4952384829521179, -0.4952384829521179, -0.4952384829521179, -0.4952384829521179, -0.4952384829521179, -0.4952384829521179, -0.4952384829521179, -0.4952384829521179, -0.4952384829521179, -0.4952384829521179, -0.4952384829521179, -0.4952384829521179, -0.4952384829521179, -0.4952384829521179, -0.4952384829521179, -0.4952384829521179, -0.4952384829521179, -0.4952384829521179, -0.4952384829521179, -0.4952384829521179, -0.4952384829521179, -0.4952384829521179, -0.4952384829521179, -0.4952384829521179, -0.4952384829521179, -0.4952384829521179, -0.4952384829521179, -0.4952384829521179, -0.4952384829521179, -0.4952384829521179, -0.4952384829521179, -0.4952384829521179, -0.4952384829521179, -0.4952384829521179, -0.4952384829521179, -0.4952384829521179, -0.4952384829521179, -0.4952384829521179, -0.4952384829521179, -0.4952384829521179, -0.4952384829521179, -0.4952384829521179, -0.4952384829521179, -0.4952384829521179, -0.4952384829521179]}, "gradients/l2.weight": {"_type": "histogram", "values": [1.0, 0.0, 1.0, 0.0, 0.0, 0.0, 0.0, 0.0, 0.0, 0.0, 0.0, 0.0, 1.0, 0.0, 0.0, 0.0, 0.0, 1.0, 1.0, 0.0, 1.0, 0.0, 1.0, 0.0, 0.0, 0.0, 0.0, 0.0, 0.0, 0.0, 0.0, 2.0, 0.0, 0.0, 0.0, 0.0, 1.0, 1.0, 0.0, 0.0, 1.0, 0.0, 2.0, 0.0, 0.0, 0.0, 0.0, 0.0, 0.0, 0.0, 0.0, 0.0, 0.0, 0.0, 0.0, 0.0, 0.0, 2.0, 0.0, 0.0, 0.0, 0.0, 0.0, 84.0], "bins": [-0.24057765305042267, -0.23681862652301788, -0.2330595999956131, -0.2293005734682083, -0.22554154694080353, -0.22178252041339874, -0.21802349388599396, -0.21426446735858917, -0.2105054408311844, -0.2067464143037796, -0.20298738777637482, -0.19922836124897003, -0.19546933472156525, -0.19171030819416046, -0.18795128166675568, -0.1841922551393509, -0.1804332435131073, -0.17667421698570251, -0.17291519045829773, -0.16915616393089294, -0.16539713740348816, -0.16163811087608337, -0.1578790843486786, -0.1541200578212738, -0.15036103129386902, -0.14660200476646423, -0.14284297823905945, -0.13908395171165466, -0.13532492518424988, -0.1315658986568451, -0.1278068721294403, -0.12404785305261612, -0.12028882652521133, -0.11652979999780655, -0.11277077347040176, -0.10901174694299698, -0.1052527204155922, -0.101493701338768, -0.09773467481136322, -0.09397564828395844, -0.09021662175655365, -0.08645759522914886, -0.08269856870174408, -0.0789395421743393, -0.07518051564693451, -0.07142148911952972, -0.06766246259212494, -0.06390344351530075, -0.06014441326260567, -0.05638538673520088, -0.0526263602077961, -0.04886733740568161, -0.045108310878276825, -0.04134928435087204, -0.037590257823467255, -0.03383123129606247, -0.030072206631302834, -0.02631318010389805, -0.022554155439138412, -0.018795128911733627, -0.015036103315651417, -0.011277077719569206, -0.007518051192164421, -0.003759026527404785, 0.0]}, "gradients/l1.bias": {"_type": "histogram", "values": [1.0, 0.0, 1.0, 0.0, 0.0, 0.0, 0.0, 0.0, 0.0, 0.0, 0.0, 0.0, 1.0, 0.0, 0.0, 0.0, 0.0, 1.0, 1.0, 0.0, 1.0, 0.0, 1.0, 0.0, 0.0, 0.0, 0.0, 0.0, 0.0, 0.0, 0.0, 2.0, 0.0, 0.0, 0.0, 0.0, 1.0, 1.0, 0.0, 0.0, 1.0, 0.0, 2.0, 0.0, 0.0, 0.0, 0.0, 0.0, 0.0, 0.0, 0.0, 0.0, 0.0, 0.0, 0.0, 0.0, 0.0, 2.0, 0.0, 0.0, 0.0, 0.0, 0.0, 84.0], "bins": [-0.0014680634485557675, -0.0014451249735429883, -0.001422186498530209, -0.0013992480235174298, -0.0013763094320893288, -0.0013533709570765495, -0.0013304324820637703, -0.001307494007050991, -0.0012845555320382118, -0.0012616170570254326, -0.0012386785820126534, -0.0012157401069998741, -0.001192801515571773, -0.0011698630405589938, -0.0011469245655462146, -0.0011239860905334353, -0.0011010476155206561, -0.0010781091405078769, -0.0010551706654950976, -0.0010322321904823184, -0.0010092935990542173, -0.000986355124041438, -0.0009634166490286589, -0.0009404781740158796, -0.0009175396407954395, -0.0008946011657826602, -0.0008716626325622201, -0.0008487241575494409, -0.0008257856825366616, -0.0008028472075238824, -0.0007799086743034422, -0.000756970199290663, -0.0007340317242778838, -0.0007110932492651045, -0.0006881547160446644, -0.0006652162410318851, -0.0006422777660191059, -0.0006193392910063267, -0.0005964007577858865, -0.0005734622827731073, -0.0005505238077603281, -0.0005275853327475488, -0.0005046467995271087, -0.00048170832451432943, -0.0004587698495015502, -0.0004358313453849405, -0.0004128928412683308, -0.0003899543662555516, -0.0003670158621389419, -0.0003440773580223322, -0.00032113888300955296, -0.00029820037889294326, -0.00027526190388016403, -0.00025232339976355433, -0.00022938491019885987, -0.0002064464206341654, -0.00018350793106947094, -0.00016056944150477648, -0.00013763095194008201, -0.00011469245509942994, -9.175396553473547e-05, -6.881547597004101e-05, -4.587697912938893e-05, -2.2938489564694464e-05, 0.0]}, "gradients/l1.weight": {"_type": "histogram", "values": [1.0, 0.0, 1.0, 0.0, 0.0, 0.0, 0.0, 0.0, 0.0, 0.0, 0.0, 0.0, 1.0, 0.0, 0.0, 0.0, 0.0, 1.0, 1.0, 0.0, 1.0, 0.0, 1.0, 0.0, 0.0, 0.0, 0.0, 0.0, 0.0, 0.0, 0.0, 2.0, 0.0, 0.0, 0.0, 0.0, 1.0, 1.0, 0.0, 0.0, 1.0, 0.0, 2.0, 0.0, 0.0, 0.0, 0.0, 0.0, 0.0, 0.0, 0.0, 0.0, 0.0, 0.0, 0.0, 0.0, 0.0, 2.0, 0.0, 0.0, 0.0, 0.0, 0.0, 84.0], "bins": [-0.1453382819890976, -0.1430673748254776, -0.1407964676618576, -0.13852554559707642, -0.13625463843345642, -0.13398373126983643, -0.13171282410621643, -0.12944190204143524, -0.12717099487781525, -0.12490008771419525, -0.12262917309999466, -0.12035826593637466, -0.11808735132217407, -0.11581644415855408, -0.11354552954435349, -0.11127462238073349, -0.1090037077665329, -0.1067328006029129, -0.10446188598871231, -0.10219097882509232, -0.09992006421089172, -0.09764915704727173, -0.09537824243307114, -0.09310733526945114, -0.09083642810583115, -0.08856552094221115, -0.08629460632801056, -0.08402369916439056, -0.08175278455018997, -0.07948187738656998, -0.07721096277236938, -0.07494005560874939, -0.0726691409945488, -0.0703982338309288, -0.06812731921672821, -0.06585641205310822, -0.06358549743890762, -0.06131458654999733, -0.059043675661087036, -0.05677276849746704, -0.05450185388326645, -0.052230942994356155, -0.04996003210544586, -0.04768912121653557, -0.045418210327625275, -0.04314729943871498, -0.04087638854980469, -0.03860548138618469, -0.0363345704972744, -0.034063659608364105, -0.03179274871945381, -0.029521837830543518, -0.027250926941633224, -0.02498001605272293, -0.022709107026457787, -0.020438196137547493, -0.0181672852486372, -0.015896374359726906, -0.013625463470816612, -0.011354553513228893, -0.0090836426243186, -0.006812731735408306, -0.004541821777820587, -0.0022709108889102936, 0.0]}}